<?xml version="1.0"?>
<opencv_storage>
<cascade>
  <stageType>BOOST</stageType>
  <featureType>HAAR</featureType>
  <height>20</height>
  <width>20</width>
  <stageParams>
    <boostType>GAB</boostType>
    <minHitRate>9.9500000476837158e-01</minHitRate>
    <maxFalseAlarm>5.0000000000000000e-01</maxFalseAlarm>
    <weightTrimRate>9.4999999999999996e-01</weightTrimRate>
    <maxDepth>1</maxDepth>
    <maxWeakCount>100</maxWeakCount></stageParams>
  <featureParams>
    <maxCatCount>0</maxCatCount>
    <featSize>1</featSize>
    <mode>BASIC</mode></featureParams>
  <stageNum>7</stageNum>
  <stages>
    <!-- stage 0 -->
    <_>
      <maxWeakCount>2</maxWeakCount>
      <stageThreshold>-7.4097163975238800e-02</stageThreshold>
      <weakClassifiers>
        <_>
          <internalNodes>
            0 -1 18 1.3614974915981293e-02</internalNodes>
          <leafValues>
            -9.1011238098144531e-01 9.1710627079010010e-01</leafValues></_>
        <_>
          <internalNodes>
            0 -1 2 1.9376417621970177e-02</internalNodes>
          <leafValues>
            -8.8274329900741577e-01 8.3601522445678711e-01</leafValues></_></weakClassifiers></_>
    <!-- stage 1 -->
    <_>
      <maxWeakCount>2</maxWeakCount>
      <stageThreshold>-2.2100557386875153e-01</stageThreshold>
      <weakClassifiers>
        <_>
          <internalNodes>
            0 -1 8 4.6845912933349609e-02</internalNodes>
          <leafValues>
            -9.1911762952804565e-01 8.1792318820953369e-01</leafValues></_>
        <_>
          <internalNodes>
            0 -1 14 -9.4359815120697021e-03</internalNodes>
          <leafValues>
            6.9811207056045532e-01 -8.9534789323806763e-01</leafValues></_></weakClassifiers></_>
    <!-- stage 2 -->
    <_>
      <maxWeakCount>4</maxWeakCount>
      <stageThreshold>-5.2611011266708374e-01</stageThreshold>
      <weakClassifiers>
        <_>
          <internalNodes>
            0 -1 4 -1.9568257033824921e-02</internalNodes>
          <leafValues>
            6.8398576974868774e-01 -9.2359548807144165e-01</leafValues></_>
        <_>
          <internalNodes>
            0 -1 3 -1.5142977237701416e-01</internalNodes>
          <leafValues>
            6.5071570873260498e-01 -7.3865771293640137e-01</leafValues></_>
        <_>
          <internalNodes>
            0 -1 15 7.6821699738502502e-02</internalNodes>
          <leafValues>
            -7.4721217155456543e-01 6.0944271087646484e-01</leafValues></_>
        <_>
          <internalNodes>
            0 -1 10 -1.0985409840941429e-02</internalNodes>
          <leafValues>
            4.9398186802864075e-01 -8.6023610830307007e-01</leafValues></_></weakClassifiers></_>
    <!-- stage 3 -->
    <_>
      <maxWeakCount>4</maxWeakCount>
      <stageThreshold>-3.8902324438095093e-01</stageThreshold>
      <weakClassifiers>
        <_>
          <internalNodes>
            0 -1 13 -5.4611335508525372e-03</internalNodes>
          <leafValues>
            6.6715544462203979e-01 -7.4074071645736694e-01</leafValues></_>
        <_>
          <internalNodes>
            0 -1 0 5.6447423994541168e-03</internalNodes>
          <leafValues>
            -5.6064254045486450e-01 6.7885118722915649e-01</leafValues></_>
        <_>
          <internalNodes>
            0 -1 21 -2.0199796184897423e-02</internalNodes>
          <leafValues>
            5.5833858251571655e-01 -6.7694902420043945e-01</leafValues></_>
        <_>
          <internalNodes>
            0 -1 11 1.2338037602603436e-02</internalNodes>
          <leafValues>
            -8.8547235727310181e-01 4.4623139500617981e-01</leafValues></_></weakClassifiers></_>
    <!-- stage 4 -->
    <_>
      <maxWeakCount>3</maxWeakCount>
      <stageThreshold>2.5152327492833138e-02</stageThreshold>
      <weakClassifiers>
        <_>
          <internalNodes>
            0 -1 1 1.4949782751500607e-02</internalNodes>
          <leafValues>
            -7.7319586277008057e-01 6.7765569686889648e-01</leafValues></_>
        <_>
          <internalNodes>
            0 -1 7 -9.5275798230431974e-05</internalNodes>
          <leafValues>
            -9.1304802894592285e-01 4.3228957056999207e-01</leafValues></_>
        <_>
          <internalNodes>
            0 -1 12 -7.4381548911333084e-03</internalNodes>
          <leafValues>
            3.6605864763259888e-01 -9.2955625057220459e-01</leafValues></_></weakClassifiers></_>
    <!-- stage 5 -->
    <_>
      <maxWeakCount>3</maxWeakCount>
      <stageThreshold>-9.9798566102981567e-01</stageThreshold>
      <weakClassifiers>
        <_>
          <internalNodes>
            0 -1 16 4.1019204072654247e-03</internalNodes>
          <leafValues>
            -8.9397591352462769e-01 6.4181184768676758e-01</leafValues></_>
        <_>
          <internalNodes>
            0 -1 7 9.6587376901879907e-05</internalNodes>
          <leafValues>
            4.5123580098152161e-01 -9.3374490737915039e-01</leafValues></_>
        <_>
          <internalNodes>
            0 -1 9 4.4378461316227913e-03</internalNodes>
          <leafValues>
            -7.0605260133743286e-01 5.0521612167358398e-01</leafValues></_></weakClassifiers></_>
    <!-- stage 6 -->
    <_>
      <maxWeakCount>5</maxWeakCount>
      <stageThreshold>-4.8356187343597412e-01</stageThreshold>
      <weakClassifiers>
        <_>
          <internalNodes>
            0 -1 6 2.3934771888889372e-04</internalNodes>
          <leafValues>
            5.9562844038009644e-01 -8.3419686555862427e-01</leafValues></_>
        <_>
          <internalNodes>
            0 -1 17 2.8096692636609077e-02</internalNodes>
          <leafValues>
            -6.6360467672348022e-01 5.8999603986740112e-01</leafValues></_>
        <_>
          <internalNodes>
            0 -1 19 1.3660787953995168e-04</internalNodes>
          <leafValues>
            3.9839163422584534e-01 -8.6760222911834717e-01</leafValues></_>
        <_>
          <internalNodes>
            0 -1 20 -1.4860730152577162e-04</internalNodes>
          <leafValues>
            -9.5067614316940308e-01 3.4329539537429810e-01</leafValues></_>
        <_>
          <internalNodes>
            0 -1 5 -2.2039376199245453e-04</internalNodes>
          <leafValues>
            -9.6805220842361450e-01 2.8494578599929810e-01</leafValues></_></weakClassifiers></_></stages>
  <features>
    <_>
      <rects>
        <_>
          0 7 2 5 -1.</_>
        <_>
          1 7 1 5 2.</_></rects>
      <tilted>0</tilted></_>
    <_>
      <rects>
        <_>
          1 5 6 4 -1.</_>
        <_>
          3 5 2 4 3.</_></rects>
      <tilted>0</tilted></_>
    <_>
      <rects>
        <_>
          1 5 6 6 -1.</_>
        <_>
          3 5 2 6 3.</_></rects>
      <tilted>0</tilted></_>
    <_>
      <rects>
        <_>
          2 9 16 10 -1.</_>
        <_>
          2 14 16 5 2.</_></rects>
      <tilted>0</tilted></_>
    <_>
      <rects>
        <_>
          3 6 8 4 -1.</_>
        <_>
          7 6 4 4 2.</_></rects>
      <tilted>0</tilted></_>
    <_>
      <rects>
        <_>
          3 7 1 4 -1.</_>
        <_>
          3 9 1 2 2.</_></rects>
      <tilted>0</tilted></_>
    <_>
      <rects>
        <_>
          3 7 1 6 -1.</_>
        <_>
          3 10 1 3 2.</_></rects>
      <tilted>0</tilted></_>
    <_>
      <rects>
        <_>
          3 9 1 2 -1.</_>
        <_>
          3 10 1 1 2.</_></rects>
      <tilted>0</tilted></_>
    <_>
      <rects>
        <_>
          4 7 11 9 -1.</_>
        <_>
          4 10 11 3 3.</_></rects>
      <tilted>0</tilted></_>
    <_>
      <rects>
        <_>
          5 0 10 2 -1.</_>
        <_>
          5 1 10 1 2.</_></rects>
      <tilted>0</tilted></_>
    <_>
      <rects>
        <_>
          5 5 11 6 -1.</_>
        <_>
          5 7 11 2 3.</_></rects>
      <tilted>0</tilted></_>
    <_>
      <rects>
        <_>
          7 7 12 2 -1.</_>
        <_>
          13 7 6 2 2.</_></rects>
      <tilted>0</tilted></_>
    <_>
      <rects>
        <_>
          7 12 6 4 -1.</_>
        <_>
          7 14 6 2 2.</_></rects>
      <tilted>0</tilted></_>
    <_>
      <rects>
        <_>
          9 8 4 4 -1.</_>
        <_>
          11 8 2 4 2.</_></rects>
      <tilted>0</tilted></_>
    <_>
      <rects>
        <_>
          9 9 6 3 -1.</_>
        <_>
          11 9 2 3 3.</_></rects>
      <tilted>0</tilted></_>
    <_>
      <rects>
        <_>
          11 6 9 7 -1.</_>
        <_>
          14 6 3 7 3.</_></rects>
      <tilted>0</tilted></_>
    <_>
      <rects>
        <_>
          11 10 6 1 -1.</_>
        <_>
          14 10 3 1 2.</_></rects>
      <tilted>0</tilted></_>
    <_>
      <rects>
        <_>
          12 1 6 8 -1.</_>
        <_>
          12 1 3 4 2.</_>
        <_>
          15 5 3 4 2.</_></rects>
      <tilted>0</tilted></_>
    <_>
      <rects>
        <_>
          13 6 6 4 -1.</_>
        <_>
          15 6 2 4 3.</_></rects>
      <tilted>0</tilted></_>
    <_>
      <rects>
        <_>
          15 9 2 1 -1.</_>
        <_>
          16 9 1 1 2.</_></rects>
      <tilted>0</tilted></_>
    <_>
      <rects>
        <_>
          15 9 2 2 -1.</_>
        <_>
          16 9 1 2 2.</_></rects>
      <tilted>0</tilted></_>
    <_>
      <rects>
        <_>
          16 5 4 7 -1.</_>
        <_>
          18 5 2 7 2.</_></rects>
      <tilted>0</tilted></_></features></cascade>
</opencv_storage>
