<?xml version="1.0"?>
<opencv_storage>
<stage6>
  <maxWeakCount>5</maxWeakCount>
  <stageThreshold>-4.8356187343597412e-01</stageThreshold>
  <weakClassifiers>
    <_>
      <internalNodes>
        0 -1 25388 2.3934771888889372e-04</internalNodes>
      <leafValues>
        5.9562844038009644e-01 -8.3419686555862427e-01</leafValues></_>
    <_>
      <internalNodes>
        0 -1 66169 2.8096692636609077e-02</internalNodes>
      <leafValues>
        -6.6360467672348022e-01 5.8999603986740112e-01</leafValues></_>
    <_>
      <internalNodes>
        0 -1 74672 1.3660787953995168e-04</internalNodes>
      <leafValues>
        3.9839163422584534e-01 -8.6760222911834717e-01</leafValues></_>
    <_>
      <internalNodes>
        0 -1 74677 -1.4860730152577162e-04</internalNodes>
      <leafValues>
        -9.5067614316940308e-01 3.4329539537429810e-01</leafValues></_>
    <_>
      <internalNodes>
        0 -1 25383 -2.2039376199245453e-04</internalNodes>
      <leafValues>
        -9.6805220842361450e-01 2.8494578599929810e-01</leafValues></_></weakClassifiers></stage6>
</opencv_storage>
